<?xml version="1.0"?>
<opencv_storage>
<opencv_ml_svm>
  <format>3</format>
  <svmType>C_SVC</svmType>
  <kernel>
    <type>LINEAR</type></kernel>
  <C>1.</C>
  <term_criteria><epsilon>9.9999999999999995e-07</epsilon>
    <iterations>100</iterations></term_criteria>
  <var_count>20</var_count>
  <class_count>2</class_count>
  <class_labels type_id="opencv-matrix">
    <rows>2</rows>
    <cols>1</cols>
    <dt>i</dt>
    <data>
      0 1</data></class_labels>
  <sv_total>1</sv_total>
  <support_vectors>
    <_>
      5.90331247e-03 1.27750461e-03 -2.43007345e-03 6.51394529e-03
      -1.38040050e-03 6.95578288e-03 2.75133381e-04 -3.76908720e-04
      -1.02056041e-02 -1.81908980e-02 1.60332024e-03 1.30860441e-04
      -1.49906776e-03 -8.13245657e-04 6.63301034e-04 -1.35807449e-03
      5.70030510e-03 1.96569556e-04 -5.25247678e-03 1.15460367e-03</_></support_vectors>
  <uncompressed_sv_total>19</uncompressed_sv_total>
  <uncompressed_support_vectors>
    <_>
      2.19296005e+02 3.47538986e+01 -1.31616998e+00 4.61008978e+00
      2.00074005e+02 3.56515007e+01 5.20921014e-02 -4.30739000e-02
      4.92500000e+01 1.58351002e+01 1.15547001e-01 1.73988007e-02
      2.92149007e-01 4.91836995e-01 4.81081009e-01 7.60267019e-01
      2.17933011e+00 7.36327982e-03 4.45561981e+01 1.68156996e-01</_>
    <_>
      2.53800003e+02 2.42073989e+00 3.97134013e-02 1.92035997e+00
      2.49250000e+02 5.17566013e+00 1.62272006e-02 -1.74499992e-02
      1.16000004e+01 7.27599001e+00 9.60291997e-02 -8.88750032e-02
      6.21374011e-01 6.25000000e-01 6.25000000e-01 9.74777997e-01 0. 0.
      0. 0.</_>
    <_>
      1.77167007e+02 1.42585001e+01 -9.33637023e-01 4.15520000e+00
      1.24083000e+02 1.45857000e+01 2.15474004e-03 -1.07412003e-02
      1.66957993e+02 2.21557007e+01 -2.02233002e-01 2.38454998e-01
      6.04609013e-01 7.50000000e-01 8.00000012e-01 9.19906020e-01 1.
      1.00000001e-01 1.12800003e+02 1.06341001e-02</_>
    <_>
      1.91738998e+02 2.07903004e+01 2.37353995e-01 3.11067009e+00
      1.23152000e+02 1.69487000e+01 -2.90728994e-02 8.79020020e-02
      1.89304001e+02 2.51525002e+01 5.12998998e-01 1.78700998e-01
      8.14504981e-01 8.62500012e-01 6.25000000e-01 9.89080012e-01
      1.39181995e+00 4.14200984e-02 3.26922989e+01 2.05633998e-01</_>
    <_>
      1.62981995e+02 5.38028984e+01 1.64240003e-01 2.01009011e+00
      1.28227997e+02 5.39193993e+01 9.81452987e-02 5.41093014e-02
      1.76263000e+02 3.85712013e+01 4.71968018e-02 4.02910002e-02
      2.96644002e-01 4.94172007e-01 3.49754006e-01 8.70446980e-01
      1.20412004e+00 6.25000000e-02 109. 1.58096999e-02</_>
    <_>
      1.55649994e+02 3.51585999e+01 5.85240006e-01 3.01325011e+00
      1.13125000e+02 3.26398010e+01 3.61096002e-02 1.37521997e-01
      1.73074997e+02 3.72990990e+01 -2.30717003e-01 1.28468007e-01
      1.26193002e-01 3.24396014e-01 2.10761994e-01 8.29766989e-01
      9.03090000e-01 1.25000000e-01 5.32500000e+01 1.80570006e-01</_>
    <_>
      1.70037994e+02 3.25494995e+01 -4.06699002e-01 2.82918000e+00
      1.02736000e+02 2.79617004e+01 -5.39343990e-03 -7.10351020e-02
      2.21320999e+02 3.43889008e+01 -5.32335997e-01 1.50682002e-01
      5.68204999e-01 6.26984000e-01 6.42857015e-01 9.36275005e-01
      1.69284999e+00 2.07100995e-02 3.76153984e+01 1.18648998e-01</_>
    <_>
      2.02393997e+02 1.55517998e+01 -1.18891001e+00 4.93548012e+00
      1.48686996e+02 1.17292995e+01 -8.92561972e-02 2.05603004e-01
      1.22647003e+02 1.27902002e+01 2.50972003e-01 -9.41501975e-01
      1.82723001e-01 5.87342978e-01 7.95000017e-01 5.52554011e-01
      2.02177000e+00 1.33445002e-02 4.50024986e+00 5.16215980e-01</_>
    <_>
      2.12654999e+02 3.41096001e+01 -1.39760002e-01 1.87923002e+00
      1.42134003e+02 2.54764004e+01 3.07651013e-01 3.74033004e-01
      1.65565002e+02 2.02812996e+01 -4.16037021e-03 6.51888996e-02
      1.59319997e-01 5.87697029e-01 8.31507981e-01 4.97613996e-01
      1.91735005e+00 1.53820002e-02 2.25339007e+00 5.97474992e-01</_>
    <_>
      2.13244003e+02 1.63791008e+01 9.29405987e-02 3.55607009e+00
      1.91289001e+02 1.69871006e+01 2.19528005e-01 2.04965007e-02
      7.49332962e+01 7.02187014e+00 -9.99039039e-03 -7.43068988e-03
      6.06795013e-01 6.13838971e-01 7.61905015e-01 9.11857009e-01
      1.45596004e+00 3.70370001e-02 2.47777996e+01 2.50752985e-01</_>
    <_>
      2.25792007e+02 2.44148006e+01 -3.18951994e-01 2.34320998e+00
      2.00042007e+02 2.63684006e+01 1.25749007e-01 -7.48592988e-02
      6.58750000e+01 1.15679998e+01 -6.17486006e-03 1.19917998e-02
      1.99359000e-01 4.38461989e-01 3.84615004e-01 7.29335010e-01
      1.31506002e+00 4.95867990e-02 4.51818008e+01 1.66509002e-01</_>
    <_>
      2.06453003e+02 3.92112999e+01 -5.86795986e-01 3.73391008e+00
      1.88843994e+02 3.96465988e+01 6.85931966e-02 -4.62711006e-02
      8.70468979e+01 3.01301003e+01 5.93172014e-01 6.92682981e-01
      2.57611990e-01 4.04762000e-01 4.09523994e-01 8.50265026e-01
      1.28769004e+00 5.37189990e-02 13. 1.70554996e-01</_>
    <_>
      1.74306000e+02 4.65298996e+01 -1.85493007e-01 2.82526994e+00
      1.60565002e+02 4.61351013e+01 1.90392993e-02 -4.90516014e-02
      1.63932007e+02 4.35195999e+01 3.37024987e-01 -1.04009002e-01
      1.21087000e-01 2.72700995e-01 4.39850003e-01 6.86147988e-01
      1.94728994e+00 1.21576004e-02 4.09473991e+01 9.97812971e-02</_>
    <_>
      1.86712646e+02 3.68999596e+01 3.23834717e-02 2.17325830e+00
      1.55827591e+02 3.60899925e+01 2.59422120e-02 3.74388248e-02
      1.93517242e+02 3.66483307e+01 1.53484702e-01 -1.29696913e-02
      1.13356039e-01 2.54761904e-01 9.52380955e-01 6.51306272e-01
      1.67488766e+00 2.16000006e-02 22. 2.06761301e-01</_>
    <_>
      1.67584610e+02 5.80723419e+01 -8.73789564e-02 2.23607969e+00
      1.37699997e+02 5.89237633e+01 8.33102539e-02 -3.64781581e-02
      1.65015381e+02 5.61003189e+01 2.40832999e-01 -8.66638198e-02
      2.42685333e-01 5.00000000e-01 6.11111104e-01 6.69013679e-01
      1.94980884e+00 1.27236079e-02 4.72857132e+01 1.40963688e-01</_>
    <_>
      1.72153839e+02 5.20893402e+01 -1.30696148e-01 2.92793751e+00
      1.50246155e+02 4.97823067e+01 1.72583684e-02 6.80436268e-02
      1.42353851e+02 4.76891975e+01 6.42308295e-01 3.99172157e-01
      3.06188136e-01 5.64516127e-01 4.19354886e-01 8.27907443e-01
      1.24082398e+00 5.99999987e-02 1.07800003e+02 1.25549622e-02</_>
    <_>
      1.74122452e+02 6.03468323e+01 -1.22770064e-01 2.21283960e+00
      1.59632660e+02 6.08238335e+01 3.37411091e-02 -5.22627048e-02
      1.62489792e+02 5.26378174e+01 2.01164529e-01 -6.32253811e-02
      1.18317306e-01 3.03571463e-01 2.91666657e-01 7.40590155e-01
      9.03090000e-01 1.25000000e-01 7.42500000e+01 5.91993853e-02</_>
    <_>
      1.74951218e+02 5.44345436e+01 -1.81975707e-01 2.10821462e+00
      1.53853653e+02 5.38496361e+01 1.49653610e-02 -3.40356193e-02
      1.61170731e+02 5.11506157e+01 3.63074541e-01 -4.50726189e-02
      3.34412307e-01 4.59333301e-01 8.33333313e-01 8.10168326e-01
      1.22182477e+00 6.17283955e-02 8.31111145e+01 1.21871710e-01</_>
    <_>
      1.49698410e+02 4.95518456e+01 2.05525696e-01 2.07852912e+00
      1.20396828e+02 4.87597084e+01 1.57817325e-03 -6.55303104e-03
      1.45476196e+02 5.40005455e+01 2.95843720e-01 7.56743625e-02
      6.12037599e-01 6.41534388e-01 8.57142866e-01 9.36768293e-01
      1.45595920e+00 3.70370373e-02 6.89444427e+01 3.53187807e-02</_></uncompressed_support_vectors>
  <decision_functions>
    <_>
      <sv_count>1</sv_count>
      <rho>-1.4037731045155635e+00</rho>
      <alpha>
        1.</alpha>
      <index>
        0</index></_></decision_functions></opencv_ml_svm>
</opencv_storage>
