<?xml version="1.0"?>
<opencv_storage>
<opencv_ml_svm>
  <format>3</format>
  <svmType>C_SVC</svmType>
  <kernel>
    <type>LINEAR</type></kernel>
  <C>1.</C>
  <term_criteria><epsilon>9.9999999999999995e-07</epsilon>
    <iterations>100</iterations></term_criteria>
  <var_count>20</var_count>
  <class_count>2</class_count>
  <class_labels type_id="opencv-matrix">
    <rows>2</rows>
    <cols>1</cols>
    <dt>i</dt>
    <data>
      0 1</data></class_labels>
  <sv_total>1</sv_total>
  <support_vectors>
    <_>
      6.53696572e-03 -6.05886802e-03 -2.09155516e-03 6.99158292e-03
      -8.21331225e-04 -1.29145064e-05 -2.58612097e-04 2.59650813e-04
      -1.64807457e-02 3.50548374e-03 1.64846005e-03 3.81627062e-04
      -2.10977858e-04 2.38517969e-04 1.35147769e-03 -2.29350044e-04
      3.30815231e-03 7.91365965e-05 4.22950555e-03 3.07145761e-04</_></support_vectors>
  <uncompressed_sv_total>24</uncompressed_sv_total>
  <uncompressed_support_vectors>
    <_>
      2.09735992e+02 1.96110001e+01 7.72813022e-01 2.93918991e+00
      1.97328995e+02 1.65643005e+01 7.13201985e-02 4.09579992e-01
      2.99740009e+01 1.40219002e+01 -1.17518999e-01 -8.34567994e-02
      1.27487004e-01 4.38212991e-01 4.12779003e-01 5.64713001e-01
      2.27587008e+00 6.34098006e-03 3.37369995e+01 2.33014002e-01</_>
    <_>
      2.33306000e+02 1.75499001e+01 -6.07392013e-01 3.10148001e+00
      2.17199997e+02 2.00380993e+01 1.64225996e-01 -1.07878998e-01
      4.22117996e+01 1.10667000e+01 1.09131001e-01 6.82308013e-03
      3.86768997e-01 4.73152012e-01 5.25635004e-01 8.80828977e-01
      1.56947005e+00 2.96000000e-02 5.38800011e+01 1.71844006e-01</_>
    <_>
      2.11919998e+02 3.06268005e+01 -3.41560990e-01 2.43166995e+00
      1.89201004e+02 3.14246006e+01 6.86945021e-02 5.35690002e-02
      6.29586983e+01 1.89626007e+01 5.15727997e-02 9.25875977e-02
      2.34288007e-01 5.69001973e-01 4.63054001e-01 6.72949016e-01
      2.36063004e+00 4.79921000e-03 2.80291004e+01 2.25447997e-01</_>
    <_>
      2.12166000e+02 3.24193993e+01 -4.86905009e-01 2.56841993e+00
      1.88576996e+02 3.34513016e+01 8.56866986e-02 -1.55191002e-02
      6.35886002e+01 1.87889004e+01 6.02511987e-02 6.74484968e-02
      1.95859000e-01 5.03830016e-01 5.37302017e-01 6.03748977e-01
      2.33535004e+00 5.09750983e-03 2.26720009e+01 2.44996995e-01</_>
    <_>
      2.17056000e+02 2.90130005e+01 -4.14449990e-01 2.39727998e+00
      1.62688004e+02 2.71972008e+01 4.65761982e-02 3.56528983e-02
      1.02394997e+02 1.88572006e+01 1.18597999e-01 1.65036004e-02
      4.58113998e-01 5.68664014e-01 7.19808996e-01 8.70779991e-01
      2.20488000e+00 6.98183989e-03 2.83710003e+01 2.20032007e-01</_>
    <_>
      2.21444000e+02 1.30818996e+01 2.65004002e-02 3.55217004e+00
      1.72356003e+02 1.22694998e+01 -1.70837998e-01 -5.85129000e-02
      8.73110962e+01 9.18410015e+00 2.01766998e-01 -2.68993992e-03
      2.69363999e-01 4.34783012e-01 3.04347992e-01 9.24328029e-01
      1.20412004e+00 6.25000000e-02 8.18750000e+01 6.62958995e-02</_>
    <_>
      2.05625000e+02 9.44904041e+00 6.65987015e-01 4.06595993e+00 150.
      9.43132973e+00 1.59312993e-01 5.60263991e-01 1.06324997e+02
      8.95094013e+00 -4.45255011e-01 -3.90144996e-02 3.59613001e-01
      5.62686980e-01 2.98507005e-01 9.35288012e-01 1.38265002e+00
      4.33673002e-02 2.82143002e+01 2.01588005e-01</_>
    <_>
      188. 1.10136003e+01 -1.06357999e-01 1.34696996e+00 1.25650002e+02
      1.25509996e+01 2.85515003e-03 -1.34663004e-03 1.42699997e+02
      2.93362007e+01 6.99120015e-02 -7.52120018e-02 7.74353027e-01
      8.33333015e-01 6.00000024e-01 9.87492025e-01 6.02060020e-01
      2.50000000e-01 125. 2.14431994e-02</_>
    <_>
      2.17889999e+02 2.98785000e+01 -1.71577007e-01 2.37493992e+00
      1.64621994e+02 3.17868996e+01 1.14238001e-01 -7.64231011e-03
      9.93832016e+01 2.42155991e+01 1.63535997e-01 3.16958994e-01
      2.09126994e-01 3.73149008e-01 4.27486986e-01 7.62109995e-01
      2.23343992e+00 6.69335015e-03 4.71250000e+01 1.33516997e-01</_>
    <_>
      2.21070999e+02 2.59566002e+01 -4.04799998e-01 2.70110989e+00
      1.64386993e+02 2.52943001e+01 1.58611000e-01 -1.33707002e-02
      1.02835999e+02 1.67991009e+01 3.63155007e-02 -4.01519996e-04
      3.51301998e-01 4.15044993e-01 6.30850017e-01 8.73767972e-01
      2.20971990e+00 7.39644980e-03 3.27527008e+01 2.01305002e-01</_>
    <_>
      2.26466995e+02 2.22047005e+01 -3.42460990e-01 1.96474004e+00
      1.48488998e+02 1.84759998e+01 4.37351018e-02 1.15850002e-01
      1.36378006e+02 1.55696001e+01 1.65931001e-01 1.85810998e-01
      6.08850002e-01 6.77083015e-01 4.16667014e-01 9.70348001e-01
      9.03090000e-01 1.25000000e-01 1.44250000e+02 8.43340997e-03</_>
    <_>
      2.31160995e+02 2.34838009e+01 -1.90730006e-01 3.54738998e+00
      1.63901993e+02 3.47430992e+01 9.41414982e-02 5.02821011e-03
      1.21906998e+02 4.38158989e+01 6.73518032e-02 3.51850018e-02
      4.05249000e-01 5.68028986e-01 7.42013991e-01 7.93336987e-01
      2.29741001e+00 5.79883996e-03 2.93607998e+01 2.12099999e-01</_>
    <_>
      2.53800003e+02 2.42073989e+00 3.97134013e-02 1.92035997e+00
      2.49250000e+02 5.17566013e+00 1.62272006e-02 -1.74499992e-02
      1.16000004e+01 7.27599001e+00 9.60291997e-02 -8.88750032e-02
      6.21374011e-01 6.25000000e-01 6.25000000e-01 9.74777997e-01 0. 0.
      0. 0.</_>
    <_>
      2.34824005e+02 2.63059998e+01 -4.33317989e-01 3.40616989e+00
      1.50022003e+02 3.33003006e+01 1.08696997e-01 -4.40366007e-02
      1.58615005e+02 4.66083984e+01 1.91505998e-01 -1.90723002e-01
      1.23745002e-01 5.07462025e-01 4.16741997e-01 5.11191010e-01
      2.33833003e+00 5.07168006e-03 3.54543991e+01 1.83349997e-01</_>
    <_>
      2.16237000e+02 3.60718994e+01 -3.35110009e-01 2.19145012e+00
      1.61500000e+02 4.20875015e+01 1.22115999e-01 -1.80892006e-01
      1.45341995e+02 3.95262985e+01 2.73110002e-01 -2.85864007e-02
      2.51098007e-01 5.11363983e-01 3.63635987e-01 8.06065977e-01
      1.07918000e+00 8.33332986e-02 8.88332977e+01 1.39640998e-02</_>
    <_>
      1.72647995e+02 1.96828003e+01 4.98742998e-01 2.89552999e+00
      1.17684998e+02 2.19577007e+01 -3.04231001e-03 -1.31329997e-02
      1.80369995e+02 3.10622005e+01 2.98839986e-01 -4.15349007e-03
      4.50839013e-01 5.54347992e-01 4.42308009e-01 9.21281993e-01
      1.53147995e+00 2.94118002e-02 7.05882034e+01 9.43638012e-02</_>
    <_>
      1.67707001e+02 1.78342991e+01 5.03292024e-01 3.41644001e+00
      1.06682999e+02 1.68833008e+01 -6.06833994e-02 -6.31887987e-02 174.
      2.12866993e+01 3.06313008e-01 6.05359003e-02 6.07851982e-01
      6.66666985e-01 5.17241001e-01 9.60256994e-01 1.40415001e+00
      4.08162996e-02 1.40713997e+01 2.43388996e-01</_>
    <_>
      1.77167007e+02 1.42585001e+01 -9.33637023e-01 4.15520000e+00
      1.24083000e+02 1.45857000e+01 2.15474004e-03 -1.07412003e-02
      1.66957993e+02 2.21557007e+01 -2.02233002e-01 2.38454998e-01
      6.04609013e-01 7.50000000e-01 8.00000012e-01 9.19906020e-01 1.
      1.00000001e-01 1.12800003e+02 1.06341001e-02</_>
    <_>
      1.84156998e+02 2.59039001e+01 -3.96943986e-01 2.65350008e+00
      1.09695000e+02 2.20300007e+01 -2.03246996e-02 5.81440004e-03
      1.97242004e+02 3.69249992e+01 -1.97692007e-01 6.55545015e-03
      7.07144976e-01 7.66543984e-01 9.41175997e-01 9.22415972e-01
      2.22667003e+00 6.53016986e-03 4.88036995e+01 1.39010996e-01</_>
    <_>
      1.91738998e+02 2.07903004e+01 2.37353995e-01 3.11067009e+00
      1.23152000e+02 1.69487000e+01 -2.90728994e-02 8.79020020e-02
      1.89304001e+02 2.51525002e+01 5.12998998e-01 1.78700998e-01
      8.14504981e-01 8.62500012e-01 6.25000000e-01 9.89080012e-01
      1.39181995e+00 4.14200984e-02 3.26922989e+01 2.05633998e-01</_>
    <_>
      1.62981995e+02 5.38028984e+01 1.64240003e-01 2.01009011e+00
      1.28227997e+02 5.39193993e+01 9.81452987e-02 5.41093014e-02
      1.76263000e+02 3.85712013e+01 4.71968018e-02 4.02910002e-02
      2.96644002e-01 4.94172007e-01 3.49754006e-01 8.70446980e-01
      1.20412004e+00 6.25000000e-02 109. 1.58096999e-02</_>
    <_>
      1.62667007e+02 4.89808998e+01 5.99812984e-01 2.21241999e+00
      1.28970001e+02 4.74931984e+01 1.39678996e-02 1.96970999e-02
      1.29697006e+02 3.01707001e+01 -2.52605993e-02 8.84694010e-02
      2.62793988e-01 4.37029004e-01 4.35896993e-01 8.37635994e-01
      3.01030010e-01 5.00000000e-01 121. 8.19671992e-03</_>
    <_>
      2.04563995e+02 2.82504997e+01 -6.58946991e-01 2.82991004e+00
      1.72871994e+02 2.69606991e+01 6.10006005e-02 -1.46264002e-01
      9.11794968e+01 1.59243002e+01 1.41185999e-01 8.03511031e-03
      3.87176007e-01 6.94444001e-01 2.50000000e-01 9.54443991e-01
      3.01030010e-01 5.00000000e-01 121. 8.19671992e-03</_>
    <_>
      1.70037735e+02 3.25495033e+01 -4.06699181e-01 2.82917905e+00
      1.02735847e+02 2.79616661e+01 -5.39344363e-03 -7.10350797e-02
      2.21320755e+02 3.43888817e+01 -5.32336116e-01 1.50682330e-01
      5.68205476e-01 6.26984239e-01 6.42857134e-01 9.36275363e-01
      1.69284713e+00 2.07100585e-02 3.76153831e+01 1.18648790e-01</_></uncompressed_support_vectors>
  <decision_functions>
    <_>
      <sv_count>1</sv_count>
      <rho>-4.3101722542717019e-01</rho>
      <alpha>
        1.</alpha>
      <index>
        0</index></_></decision_functions></opencv_ml_svm>
</opencv_storage>
